<?xml version="1.0" encoding="ISO-8859-1"?>
<!-- This network was created in GeNIe Academic, which can be used for educational and research purposes only -->
<smile version="1.0" id="Network1" numsamples="1000" discsamples="10000">
	<nodes>
		<cpt id="FloodStage">
			<state id="PreventionAndMitigation" label="fs1" />
			<state id="Preparation" label="fs2" />
			<state id="Response" label="fs3" />
			<state id="Recovery" label="fs4" />
			<probabilities>0.1052631578947368 0.3157894736842105 0.4210526315789473 0.1578947368421053</probabilities>
		</cpt>
		<cpt id="FloodResponseLevel">
			<state id="I" />
			<state id="II" />
			<state id="III" />
			<state id="IV" />
			<state id="V" />
			<parents>FloodStage</parents>
			<probabilities>0 0 0 0 1 0 0 0 0 1 0.1052631578947368 0.2105263157894736 0.3684210526315789 0.3157894736842105 0 0 0 0 0 1</probabilities>
		</cpt>
		<cpt id="ObservedTimeScale">
			<state id="low" />
			<state id="normal" />
			<state id="high" />
			<parents>FloodStage FloodResponseLevel</parents>
			<probabilities>0.73 0.21 0.06 0.73 0.21 0.06 0.73 0.21 0.06 0.73 0.21 0.06 0.73 0.21 0.06 0.05 0.72 0.23 0.05 0.72 0.23 0.05 0.72 0.23 0.05 0.72 0.23 0.05 0.72 0.23 0.01 0.02 0.97 0.02 0.13 0.85 0.14 0.25 0.61 0.11 0.38 0.51 0.08 0.71 0.21 0.17 0.59 0.24 0.17 0.59 0.24 0.17 0.59 0.24 0.17 0.59 0.24 0.17 0.59 0.24</probabilities>
		</cpt>
		<cpt id="ObservedSpaceScale">
			<state id="low" />
			<state id="normal" />
			<state id="high" />
			<parents>FloodResponseLevel</parents>
			<probabilities>0 0.23 0.77 0 0.38 0.62 0.35 0.61 0.04 0.5600000000000001 0.39 0.05 0.6899999999999999 0.31 0</probabilities>
		</cpt>
		<cpt id="SolarRadiation">
			<state id="low" label="sr1" />
			<state id="normal" label="sr2" />
			<state id="high" label="sr3" />
			<probabilities>0.5 0.5 0</probabilities>
		</cpt>
		<cpt id="FloodType">
			<state id="kuijue" />
			<state id="manyi" />
			<state id="neilao" />
			<state id="xuhong" />
			<state id="shanhong" />
			<state id="haixiao" />
			<state id="none" />
			<parents>FloodStage</parents>
			<probabilities>0 0 0 0 0 0 1 0.2 0.14 0.2 0.15 0.11 0.03 0.17 0.2 0.14 0.2 0.15 0.11 0.03 0.17 0 0 0 0 0 0 1</probabilities>
		</cpt>
		<cpt id="Topography">
			<state id="chengshi" label="t0" />
			<state id="pingyuan" label="t1" />
			<state id="qiuling" label="t2" />
			<state id="shantqu" label="t3" />
			<probabilities>0.25 0.25 0.25 0.25</probabilities>
		</cpt>
		<cpt id="FloodParameter">
			<state id="FloodRegion" label="p1" />
			<state id="WaterLeve" label="p2" />
			<state id="FloodDuration" label="p3" />
			<state id="Rainfall" label="p4" />
			<state id="Flow" label="p5" />
			<state id="SedimentConcentratio" label="p6" />
			<state id="SnowWaterEquivalen" label="p7" />
			<state id="Evaperation" label="p8" />
			<state id="SoilMoistureConten" label="p9" />
			<state id="LanduseType" label="p10" />
			<state id="ImperviousSurfaceCoverage" label="p11" />
			<state id="BottomWater" label="p12" />
			<state id="Weather" label="p13" />
			<state id="ImportantFacilities" label="p14" />
			<parents>FloodStage FloodType</parents>
			<probabilities>0.08905501631929875 0.08744439519772504 1.178234541756036e-25 5.430264501650482e-27 9.017375723375459e-27 2.847593650911778e-28 0 0 0 0.3294002353931905 0 0.4941003530897857 3.413470068327795e-25 0 0.08858422432334259 0.08690688935074665 2.182111596404622e-24 1.812278402790708e-27 1.440729540534139e-26 8.700154241446205e-29 0 1.221756305736086e-25 1.432011159536262e-28 0.3298035545303643 0 0.4947053317955465 3.115703634047338e-25 0 0.12 0.12 0 0 0 0 0 0 0 0.39 0 0.3 0 0.06999999999999999 0.0831258147918776 0.07882961787543187 1.793034955649243e-18 1.470451794331917e-24 8.368311858706577e-23 2.405143036206336e-21 1.236931133489519e-15 2.345349505946826e-17 3.013755540653945e-21 0.2690740778787695 0 0.5689704894539197 1.122539147622144e-21 0 0.08495973408778947 0.07978129474446036 1.31780548545136e-18 1.791970972144482e-25 3.557223140597127e-25 8.881846686110343e-21 7.604025466716242e-18 2.926091235242445e-17 8.416417032325013e-19 0.2781560338738602 0 0.55710293729389 3.705262172798172e-18 0 0.08779532868828692 0.08444480719420977 1.329238268911185e-19 9.235595153369883e-24 6.018428680888993e-22 0 0 0 0 0.3011334104078769 0 0.5266264537096264 1.611754691686379e-22 0 0.05769243304129919 0.05769243304129919 0 1.308503045398968e-12 2.827862907031147e-15 0 0 1.186621446861688e-12 3.332747386293091e-15 0.4615372916133565 1.031267885440708e-14 0.4230778423015334 0 0 0.03854960264184224 0.226639758020426 0.0004254585414779577 0.1574553064256962 0.1400759570962984 0.1061623922373155 0.03306927941818755 0 0.08267319854546887 0 0 0 0.2149490470732874 0 0.04098137376461393 0.2088611999782579 6.693843014380279e-05 0.1483194552018813 0.1332797068877644 0.09767353289276626 0.03001006633897459 2.196571454904218e-05 0.1457234347683282 0 0 0 0.1950623260227207 0 0.02 0.19 0 0.13 0.1 0.09 0.06 0 0.17 0 0 0 0.15 0.08999999999999998 0.0229488517338884 0.1821302961207265 2.397692060306128e-05 0.09724644823209995 0.07849265291139502 0.09941667939729631 0.1926046655784602 0.0002411780249076103 0.1583926570523674 0 0 0.04492109954780724 0.1235814944804484 0 0.02634835784437179 0.166963151956882 3.015709021677633e-05 0.08550942910369984 0.06977155592666669 0.09292178939603092 0.1199841071374312 0.0001442605551821425 0.2069198902271353 0 0 0.03606083885090935 0.195346461911474 0 0.1488557533726171 0.2140925376944249 0.1563912093065525 0.1247915730917154 0.1154166841285492 0.03035927432594646 0.02023951621729764 0 0.05059879054324409 0 0 0.007697797500982935 0.1315568553978108 8.420858899071959e-09 0.01725113145747965 0.1897624460322762 0 0.1639816458973291 0.1186717447838379 0.1035067887448779 0.0690045258299186 1.169571153098622e-15 0.1998126655943783 6.404757456661503e-14 7.54722384788987e-18 8.230925689575231e-22 0.1380090516598372 0 0.2354836837579649 0.1064125990753296 0.2156287831481231 0.1140054594578253 0.1040670019620099 0.08375833295370791 0 0.0324560347259898 0.0324560347259898 0 0.04327471296798639 0 1.322499083545047e-06 0.03245603472598979 0.2154726529014414 0.09565809809768347 0.2056344520048522 0.1045409637599938 0.09408511889140025 0.07652757516049125 0 0.0815995203940091 0.05301657167664636 0 0.041978050503888 0 3.458731678037537e-06 0.03148353787791613 0.17 0.12 0.14 0.08 0.02 0.02 0 0.01 0.03 0 0.08 0.08 0.09 0.16 0.2210245377796778 0.09676978680707825 0.1938065502735514 0.07196418138348687 0.06317475696823689 0.08611122775629432 0.001403714283765891 0.1222921335015573 0.06078696011518246 0 0.03902795376765693 0.01436723120510617 8.32662927710156e-10 0.02927096532574269 0.2148557271864653 0.08684780155450693 0.1930285140204739 0.06827605629508784 0.05936515324859416 0.07874197021569901 0.000265112240425959 0.1207994779503725 0.07850211599808363 0 0.03853169902561154 0.03183677765936777 5.082033610260053e-05 0.02889877426920873 0.1704756584704902 0.1091338328338637 0.1590292421842249 0.1187083293860346 0.09684012585539463 0.07829482364569999 0 0.05872111773427499 0.05872111773427499 0 0.07829482364569999 3.521721251793747e-14 4.86494769674314e-16 0.0717809285100065 0.09487981081482845 0.06568602287180432 0.08758136382907242 0.1949661087960282 0.1179104604109716 0.05838757588604828 0 0.1135313975551204 0.09513631660375246 1.969788928836646e-06 0.1281282915277057 1.203260892588786e-12 0 0.04379068191453628 0.1908126991002707 0.1873981082108144 0.1089833795075858 4.776756905656047e-21 7.856433533596894e-21 0.159553228165513 0 0 0 0 0 0 3.495055762517337e-19 0.3532525850158161 0.1971755765972852 0.189324005045284 0.1129332298410723 2.853910432847551e-16 3.044427269627366e-15 0.1603092865193461 0 5.152071850858821e-15 3.612604680943867e-18 0 0 0 9.988335914630565e-15 0.3402579019969938 0.1872301402475676 0.186151275557542 0.1060377753509831 5.926018054898966e-16 2.935920513472399e-14 0.1301134651883686 0 0 2.160101817270372e-13 0 1.058761329610843e-09 1.547940651783163e-08 2.890367791119902e-07 0.3904670380803457 0.1926434344409993 0.1880126042236643 0.109819413023501 3.340370719110872e-23 7.435613132869047e-22 0.1611613333296275 7.43739889510912e-14 1.213165335075136e-15 3.594193931764608e-19 0 0 7.725759869800429e-13 6.084328705653417e-20 0.3483632149813597 0.18969777904929 0.1861324971061248 0.1083198006801318 1.94035599212444e-28 3.607041955658083e-26 0.1596857935691764 1.778833655653642e-20 9.245680454407871e-20 1.921754738314156e-21 0 0 4.105681747410472e-17 4.305587310158249e-20 0.3561641295952769 0.2046632881962463 0.1861240139936677 0.1184779288445343 9.155562586660283e-12 4.800481320157021e-11 0.124591015090811 0 0 0 0 0 4.17428597054215e-10 4.223214479815789e-11 0.3661437533579197 0.1842105262994346 0.1842105262994346 0.1052631578853912 5.389002016646924e-14 4.519980875880243e-16 0.1578947368280868 0 1.275261682052384e-14 1.227953022805142e-15 8.871226631258774e-11 3.179428637773241e-15 3.702975176218615e-19 0 0.368421052598869</probabilities>
		</cpt>
		<cpt id="CloudCover">
			<state id="low" label="cc1" />
			<state id="normal" label="cc2" />
			<state id="high" label="cc3" />
			<probabilities>0.5 0.5 0</probabilities>
		</cpt>
		<cpt id="RevisitCycle">
			<state id="less05d" label="rc1" />
			<state id="less1d" label="rc2" />
			<state id="less5d" label="rc3" />
			<state id="less10d" label="rc4" />
			<state id="less30d" label="rc5" />
			<state id="more30d" label="rc6" />
			<parents>ObservedTimeScale FloodParameter</parents>
			<probabilities>0.1513969425224773 0.01376495727387218 0.1656532319342861 0.2433466431979542 0.2991117563039181 0.1267264687674921 0.251578338219351 0.2466272512774289 0.1014237854645699 0.1036242431049081 0.07199959649325174 0.2247467854404902 0.2335779691251959 0.1663329574897411 0.1378271400315653 0.1924447030307891 0.1083076392855077 0.1615095910372008 0.2710038852563147 0.1320128240793882 0.08849685550120819 0.1837577741501206 0.221401492241411 0.1033271687715573 0.09593851065383147 0.2535721308553906 0.1474303361086382 0.2157135807962085 0.2171472349036973 0.07019820668223402 0.2284093296476647 0.1079350658508702 0.1518912464881779 0.1434965715172925 0.1723432106226903 0.1959245758733046 0.1681680781215431 0.1991323537558775 0.2192616874902092 0.1844838025553224 0.1800706441126224 0.04888343396442522 0.1520460155223308 0.2483582162652943 0.1712250259901311 0.08333651714542747 0.1645519070913549 0.1804823179854614 0.1092128554306209 0.1105997986757818 0.18739601834542 0.3032321313309974 0.1140541605019739 0.1755050357152062 0.129207985846598 0.0821456896954304 0.2225514243686925 0.2400889551170708 0.1630996757542788 0.1629062692179295 0.2029363232373627 0.1558285340635386 0.3282568736685227 0.1039474566430133 0.1081974823785219 0.1008333300090407 0.06926999230284166 0.1460539292050496 0.2142472116924555 0.2168307105936094 0.153008498316112 0.200589657889932 0.2375432532464619 0.1220300408822357 0.06747988676422065 0.09694634197616753 0.2005266629960542 0.2754738141348602 0.2293507916828441 0.07472888613430397 0.1015358980087658 0.332167908973279 0.06627890503626581 0.1959376101645413 0.1175508934881145 0.08908023516825662 0.1055919763740822 0.2944754934647198 0.2582742363608159 0.1350271651440109 0.2215559545106296 0.270457268810962 0.05963032464451987 0.1847278527586643 0.1592046940624092 0.104423905212815 0.1204105352317486 0.1243865695389862 0.2511145728886135 0.2420616938496991 0.2084866231641921 0.05354000532676052 0.1146616165395384 0.2479802513892999 0.2182685533906747 0.09062115003007594 0.2198074798035786 0.1086609488468325 0.08717837041900484 0.2309181762261028 0.1765542539469517 0.1887750953122933 0.2396771010424584 0.07689700305318907 0.1572365784602807 0.1465362292439359 0.2027207220536026 0.09667835828802583 0.1933410405599014 0.2034870713942535 0.03070220225813987 0.1239838627628169 0.3558474876659258 0.2254946153323501 0.08914879258013282 0.1748230394006344 0.2564097397199255 0.2906080380722018 0.09721867094030673 0.1077388596531897 0.06825540350468831 0.1797692881096878 0.2948824687766166 0.08743926750514708 0.1385690592863493 0.1860788116880588 0.1186619291536689 0.1743684635901593 0.09556603811384744 0.2511903000492295 0.214149114593775 0.04041840984578907 0.177992157835982 0.2206839795613769 0.2641503409207799 0.160641300030434 0.1827895874722759 0.1071784619436448 0.1361129174070421 0.1491273922258233 0.02396385414695435 0.2746545549250884 0.222932117164137 0.1990854133739434 0.2076242603210658 0.071739800068811 0.1618757529581003 0.1249662601231946 0.2708601579262537 0.1996097894422342 0.1158365665315243 0.1268514730186929 0.2864677582528273 0.1374878398594234 0.07356580884508868 0.1173348894699066 0.1640046556961894 0.2211390478765647 0.16 0.26 0.32 0.17 0.06 0.03 0.15 0.3 0.38 0.09 0.07000000000000001 0.01 0.23 0.38 0.12 0.16 0.09 0.02 0.33 0.26 0.19 0.12 0.06 0.04 0.4 0.16 0.31 0.06 0.04 0.03 0.22 0.47 0.14 0.11 0.04 0.01999999999999999 0.00597965614849242 0.1805965418625878 0.314377092208944 0.1621744009282117 0.1965483597389011 0.1403239491128629 0.1587666877975912 0.3421213423495843 0.1784184449671977 0.009152201518089365 0.1490922791325852 0.1624490442349522 0.1855070482570407 0.2223760133196664 0.251782297070756 0.08298240497758803 0.03566700046646638 0.2216852359084823 0.09884164077624301 0.2368299361236184 0.2291047823239652 0.1897583422935873 0.1372881615343109 0.1081771369482751 0.29 0.35 0.19 0.09 0.03 0.05000000000000012 0.24 0.3 0.08 0.29 0.06 0.03 0.2 0.35 0.03 0.26 0.11 0.04999999999999999 0.25 0.24 0.18 0.25 0.06 0.02</probabilities>
		</cpt>
		<cpt id="RadiationResolution">
			<state id="low" label="rr1" />
			<state id="normal" label="rr2" />
			<state id="high" label="rr3" />
			<parents>CloudCover FloodParameter</parents>
			<probabilities>0.8181524391161279 0.1403046591541161 0.04154290172975587 0.8181524844987725 0.1403046631563889 0.0415428523448385 0.8331207526694614 0.12886187521437 0.03801737211616889 0.8181524710885403 0.1403044243997307 0.0415431045117291 0.8181526440047858 0.1403038405331516 0.04154351546206268 0.8284389540566158 0.129976222865345 0.04158482307803921 0.8099845790320599 0.1337090980391537 0.05630632292878632 0.8331209352472948 0.1288622928209456 0.03801677193175956 0.7860135269803851 0.1495784382565321 0.06440803476308284 0.7860339871698118 0.1495915500611519 0.06437446276903633 0.8284390311537324 0.1299771312251229 0.04158383762114456 0.8057661876106597 0.144516629500548 0.04971718288879237 0.8331207916920254 0.128862310200518 0.03801689810745661 0.8284386094717774 0.1299773135405068 0.04158407698771575 0.5002243008289571 0.3242013023026692 0.1755743968683737 0.5002231562599437 0.3241992948947004 0.1755775488453559 0.6357653544315792 0.2454183650338535 0.1188162805345673 0.5002274878457156 0.3242137780426841 0.1755587341116003 0.5002340104601347 0.3242372663532003 0.1755287231866651 0.5396002717211952 0.2119571782986614 0.2484425499801433 0.3178215961903819 0.1302741802976864 0.5519042235119317 0.6357518733666125 0.2453884683504245 0.118859658282963 0.2150121618574572 0.148653738797373 0.6363340993451697 0.2150040130105807 0.1486081749572969 0.6363878120321224 0.539577552002054 0.2119221947188709 0.248500253279075 0.3344713531066855 0.222741190795128 0.4427874560981865 0.6357557156447124 0.245392912996148 0.1188513713591395 0.5395862382069825 0.211927016125609 0.2484867456674085 0.08243162434057176 0.211460515466412 0.7061078601930162 0.08243273366070111 0.2114638676448634 0.7061033986944356 0.1196811962227292 0.2099449545039658 0.670373849273305 0.08242922236686466 0.2114392424478391 0.7061315351852964 0.08242413268396283 0.2113993056515137 0.7061765616645235 0.09011963381247196 0.1637123670879696 0.7461679990995584 0.04496255203981394 0.08838490134934202 0.866652546610844 0.1196990504874616 0.2100045784599838 0.6702963710525547 0.03168943571824753 0.08930155667815154 0.8790090076036009 0.03169561214366379 0.08939724225873441 0.8789071455976019 0.09015019934775376 0.1637819978635545 0.7460678027886916 0.05166864849929085 0.1383856835794796 0.8099456679212295 0.1196935148999993 0.2099957107859404 0.6703107743140604 0.09013712388508574 0.163772482939413 0.7460903931755013</probabilities>
		</cpt>
		<cpt id="BandType">
			<state id="VIS_Red" />
			<state id="VIS_Orange" />
			<state id="VIS_Yellow" />
			<state id="VIS_Green" />
			<state id="VIS_Cyan" />
			<state id="VIS_Blue" />
			<state id="VIS_Purple" />
			<state id="NIR" />
			<state id="MIR" />
			<state id="FIR" />
			<state id="MV" />
			<parents>CloudCover SolarRadiation FloodParameter</parents>
			<probabilities>0.166797547268883 0 0 0.2775611918706574 0 0.05556159054977117 0 0.2223451362889599 0.1110927067673636 0 0.166641827254365 0 0 0 0.4285634240484258 0 0.3804792383452011 0 0.1909573376063731 0 0 0 0.1666753756191067 0 0 0.2778037623265519 0 0.05550487148878678 0 0.222238732095256 0.1110702722126405 0 0.166706986257658 0.07146888109325271 0.07140324919394947 0.07135727318190434 0.0714921945851974 0.07139840926732111 0.07141700501846202 0.07149375863824607 0.2857191709708236 0 0 0.2142500580508433 0 0 0 0 0 0 0 0.4614158512969359 0.07694489824074223 0.03847195779311333 0.4231672926692086 0 0 0 0.352999013228553 0 0.3234990092231599 0 0.3235019775482871 0 0 0 0.1666703964279317 0.1665975240016699 0.1666831692083428 0.125010787322197 0.1249891438433585 0.08332945912053219 0.08336724117856731 0.08335227889740056 0 0 0 0.3236271517462427 0.05880392528038213 0.05882124701312298 0.0882311866667483 0.05882385988362233 0.02940966136547024 0.02940758803653057 0.2646507020412379 0.08822467796664293 0 0 0 0 0 0 0 0.3667593506660117 0 0.3332603740342163 0 0 0.2999802752997721 0.2608809366548451 0 0.260897179628216 0.2173883007875011 0 0.1303929995163418 0 0.1304405834130959 0 0 0 0.2000211756714713 0.07998562548697315 0.08002649151439778 0.08000336408419551 0.08002260023216989 0.03999272973237262 0.0400162841907391 0.359929493096407 0 0 0.04000223599127366 0.1071193085374191 0 0 0.1786413497696983 0 0.03571871161693162 0 0.3214280535414642 0.0714252139423483 0 0.2856673625921385 0.1666870453637684 0.08335979249660867 0.08334314449299329 0.08336369524714379 0.04165564700360803 0.04166836708478208 0.041651857454402 0.1666613095491319 0.08333542251336533 0.04165164281868999 0.1666220759755067 0.2142678467300326 0.07140795377398994 0.07141302643726133 0.2142921522256244 0.07141962848046238 0.1786115658870135 0.07144490746970676 0.03572398726521688 0.03570527376344397 0.0357136579672481 0 0.166797547268883 0 0 0.2775611918706574 0 0.05556159054977117 0 0.2223451362889599 0.1110927067673636 0 0.166641827254365 0 0 0 0.4285634240484258 0 0.3804792383452011 0 0.1909573376063731 0 0 0 0.1666753756191067 0 0 0.2778037623265519 0 0.05550487148878678 0 0.222238732095256 0.1110702722126405 0 0.166706986257658 0.07146888109325271 0.07140324919394947 0.07135727318190434 0.0714921945851974 0.07139840926732111 0.07141700501846202 0.07149375863824607 0.2857191709708236 0 0 0.2142500580508433 0 0 0 0 0 0 0 0.4614158512969359 0.07694489824074223 0.03847195779311333 0.4231672926692086 0 0 0 0.352999013228553 0 0.3234990092231599 0 0.3235019775482871 0 0 0 0.1666703964279317 0.1665975240016699 0.1666831692083428 0.125010787322197 0.1249891438433585 0.08332945912053219 0.08336724117856731 0.08335227889740056 0 0 0 0.3236271517462427 0.05880392528038213 0.05882124701312298 0.0882311866667483 0.05882385988362233 0.02940966136547024 0.02940758803653057 0.2646507020412379 0.08822467796664293 0 0 0 0 0 0 0 0.3667593506660117 0 0.3332603740342163 0 0 0.2999802752997721 0.2608809366548451 0 0.260897179628216 0.2173883007875011 0 0.1303929995163418 0 0.1304405834130959 0 0 0 0.2000211756714713 0.07998562548697315 0.08002649151439778 0.08000336408419551 0.08002260023216989 0.03999272973237262 0.0400162841907391 0.359929493096407 0 0 0.04000223599127366 0.1071193085374191 0 0 0.1786413497696983 0 0.03571871161693162 0 0.3214280535414642 0.0714252139423483 0 0.2856673625921385 0.1666870453637684 0.08335979249660867 0.08334314449299329 0.08336369524714379 0.04165564700360803 0.04166836708478208 0.041651857454402 0.1666613095491319 0.08333542251336533 0.04165164281868999 0.1666220759755067 0.2142678467300326 0.07140795377398994 0.07141302643726133 0.2142921522256244 0.07141962848046238 0.1786115658870135 0.07144490746970676 0.03572398726521688 0.03570527376344397 0.0357136579672481 0 0.14 0 0 0.24 0 0.05 0 0.19 0.09 0 0.29 0 0 0 0.36 0 0.32 0 0.16 0 0 0.16 0.1666753756191067 0 0 0.2778037623265519 0 0.05550487148878678 0 0.222238732095256 0.1110702722126405 0 0.166706986257658 0.07146888109325271 0.07140324919394947 0.07135727318190434 0.0714921945851974 0.07139840926732111 0.07141700501846202 0.07149375863824607 0.2857191709708236 0 0 0.2142500580508433 0 0 0 0 0 0 0 0.4614158512969359 0.07694489824074223 0.03847195779311333 0.4231672926692086 0 0 0 0.352999013228553 0 0.3234990092231599 0 0.3235019775482871 0 0 0 0.1666703964279317 0.1665975240016699 0.1666831692083428 0.125010787322197 0.1249891438433585 0.08332945912053219 0.08336724117856731 0.08335227889740056 0 0 0 0.3236271517462427 0.05880392528038213 0.05882124701312298 0.0882311866667483 0.05882385988362233 0.02940966136547024 0.02940758803653057 0.2646507020412379 0.08822467796664293 0 0 0 0 0 0 0 0.3667593506660117 0 0.3332603740342163 0 0 0.2999802752997721 0.2608809366548451 0 0.260897179628216 0.2173883007875011 0 0.1303929995163418 0 0.1304405834130959 0 0 0 0.2000211756714713 0.07998562548697315 0.08002649151439778 0.08000336408419551 0.08002260023216989 0.03999272973237262 0.0400162841907391 0.359929493096407 0 0 0.04000223599127366 0.1071193085374191 0 0 0.1786413497696983 0 0.03571871161693162 0 0.3214280535414642 0.0714252139423483 0 0.2856673625921385 0.1666870453637684 0.08335979249660867 0.08334314449299329 0.08336369524714379 0.04165564700360803 0.04166836708478208 0.041651857454402 0.1666613095491319 0.08333542251336533 0.04165164281868999 0.1666220759755067 0.2142678467300326 0.07140795377398994 0.07141302643726133 0.2142921522256244 0.07141962848046238 0.1786115658870135 0.07144490746970676 0.03572398726521688 0.03570527376344397 0.0357136579672481 0 0.166797547268883 0 0 0.2775611918706574 0 0.05556159054977117 0 0.2223451362889599 0.1110927067673636 0 0.166641827254365 0 0 0 0.4285634240484258 0 0.3804792383452011 0 0.1909573376063731 0 0 0 0.1666753756191067 0 0 0.2778037623265519 0 0.05550487148878678 0 0.222238732095256 0.1110702722126405 0 0.166706986257658 0.07146888109325271 0.07140324919394947 0.07135727318190434 0.0714921945851974 0.07139840926732111 0.07141700501846202 0.07149375863824607 0.2857191709708236 0 0 0.2142500580508433 0 0 0 0 0 0 0 0.4614158512969359 0.07694489824074223 0.03847195779311333 0.4231672926692086 0 0 0 0.352999013228553 0 0.3234990092231599 0 0.3235019775482871 0 0 0 0.1666703964279317 0.1665975240016699 0.1666831692083428 0.125010787322197 0.1249891438433585 0.08332945912053219 0.08336724117856731 0.08335227889740056 0 0 0 0.3236271517462427 0.05880392528038213 0.05882124701312298 0.0882311866667483 0.05882385988362233 0.02940966136547024 0.02940758803653057 0.2646507020412379 0.08822467796664293 0 0 0 0 0 0 0 0.3667593506660117 0 0.3332603740342163 0 0 0.2999802752997721 0.2608809366548451 0 0.260897179628216 0.2173883007875011 0 0.1303929995163418 0 0.1304405834130959 0 0 0 0.2000211756714713 0.07998562548697315 0.08002649151439778 0.08000336408419551 0.08002260023216989 0.03999272973237262 0.0400162841907391 0.359929493096407 0 0 0.04000223599127366 0.1071193085374191 0 0 0.1786413497696983 0 0.03571871161693162 0 0.3214280535414642 0.0714252139423483 0 0.2856673625921385 0.1666870453637684 0.08335979249660867 0.08334314449299329 0.08336369524714379 0.04165564700360803 0.04166836708478208 0.041651857454402 0.1666613095491319 0.08333542251336533 0.04165164281868999 0.1666220759755067 0.2142678467300326 0.07140795377398994 0.07141302643726133 0.2142921522256244 0.07141962848046238 0.1786115658870135 0.07144490746970676 0.03572398726521688 0.03570527376344397 0.0357136579672481 0 0.166797547268883 0 0 0.2775611918706574 0 0.05556159054977117 0 0.2223451362889599 0.1110927067673636 0 0.166641827254365 0 0 0 0.4285634240484258 0 0.3804792383452011 0 0.1909573376063731 0 0 0 0.1666753756191067 0 0 0.2778037623265519 0 0.05550487148878678 0 0.222238732095256 0.1110702722126405 0 0.166706986257658 0.07146888109325271 0.07140324919394947 0.07135727318190434 0.0714921945851974 0.07139840926732111 0.07141700501846202 0.07149375863824607 0.2857191709708236 0 0 0.2142500580508433 0 0 0 0 0 0 0 0.4614158512969359 0.07694489824074223 0.03847195779311333 0.4231672926692086 0 0 0 0.352999013228553 0 0.3234990092231599 0 0.3235019775482871 0 0 0 0.1666703964279317 0.1665975240016699 0.1666831692083428 0.125010787322197 0.1249891438433585 0.08332945912053219 0.08336724117856731 0.08335227889740056 0 0 0 0.3236271517462427 0.05880392528038213 0.05882124701312298 0.0882311866667483 0.05882385988362233 0.02940966136547024 0.02940758803653057 0.2646507020412379 0.08822467796664293 0 0 0 0 0 0 0 0.3667593506660117 0 0.3332603740342163 0 0 0.2999802752997721 0.2608809366548451 0 0.260897179628216 0.2173883007875011 0 0.1303929995163418 0 0.1304405834130959 0 0 0 0.2000211756714713 0.07998562548697315 0.08002649151439778 0.08000336408419551 0.08002260023216989 0.03999272973237262 0.0400162841907391 0.359929493096407 0 0 0.04000223599127366 0.1071193085374191 0 0 0.1786413497696983 0 0.03571871161693162 0 0.3214280535414642 0.0714252139423483 0 0.2856673625921385 0.1666870453637684 0.08335979249660867 0.08334314449299329 0.08336369524714379 0.04165564700360803 0.04166836708478208 0.041651857454402 0.1666613095491319 0.08333542251336533 0.04165164281868999 0.1666220759755067 0.2142678467300326 0.07140795377398994 0.07141302643726133 0.2142921522256244 0.07141962848046238 0.1786115658870135 0.07144490746970676 0.03572398726521688 0.03570527376344397 0.0357136579672481 0 0.14 0 0 0.24 0 0.05 0 0.19 0.1 0 0.28 0 0 0 0.39 0 0.34 0 0.17 0 0 0.1 0.1666753756191067 0 0 0.2778037623265519 0 0.05550487148878678 0 0.222238732095256 0.1110702722126405 0 0.166706986257658 0.07146888109325271 0.07140324919394947 0.07135727318190434 0.0714921945851974 0.07139840926732111 0.07141700501846202 0.07149375863824607 0.2857191709708236 0 0 0.2142500580508433 0 0 0 0 0 0 0 0.4614158512969359 0.07694489824074223 0.03847195779311333 0.4231672926692086 0 0 0 0.352999013228553 0 0.3234990092231599 0 0.3235019775482871 0 0 0 0.1666703964279317 0.1665975240016699 0.1666831692083428 0.125010787322197 0.1249891438433585 0.08332945912053219 0.08336724117856731 0.08335227889740056 0 0 0 0.3236271517462427 0.05880392528038213 0.05882124701312298 0.0882311866667483 0.05882385988362233 0.02940966136547024 0.02940758803653057 0.2646507020412379 0.08822467796664293 0 0 0 0 0 0 0 0.3667593506660117 0 0.3332603740342163 0 0 0.2999802752997721 0.2608809366548451 0 0.260897179628216 0.2173883007875011 0 0.1303929995163418 0 0.1304405834130959 0 0 0 0.2000211756714713 0.07998562548697315 0.08002649151439778 0.08000336408419551 0.08002260023216989 0.03999272973237262 0.0400162841907391 0.359929493096407 0 0 0.04000223599127366 0.1071193085374191 0 0 0.1786413497696983 0 0.03571871161693162 0 0.3214280535414642 0.0714252139423483 0 0.2856673625921385 0.1666870453637684 0.08335979249660867 0.08334314449299329 0.08336369524714379 0.04165564700360803 0.04166836708478208 0.041651857454402 0.1666613095491319 0.08333542251336533 0.04165164281868999 0.1666220759755067 0.2142678467300326 0.07140795377398994 0.07141302643726133 0.2142921522256244 0.07141962848046238 0.1786115658870135 0.07144490746970676 0.03572398726521688 0.03570527376344397 0.0357136579672481 0 0.14 0 0 0.24 0 0.05 0 0.19 0.09 0 0.29 0 0 0 0.4285634240484258 0 0.3804792383452011 0 0.1909573376063731 0 0 0 0.1666753756191067 0 0 0.2778037623265519 0 0.05550487148878678 0 0.222238732095256 0.1110702722126405 0 0.166706986257658 0.07146888109325271 0.07140324919394947 0.07135727318190434 0.0714921945851974 0.07139840926732111 0.07141700501846202 0.07149375863824607 0.2857191709708236 0 0 0.2142500580508433 0 0 0 0 0 0 0 0.4614158512969359 0.07694489824074223 0.03847195779311333 0.4231672926692086 0 0 0 0.352999013228553 0 0.3234990092231599 0 0.3235019775482871 0 0 0 0.1666703964279317 0.1665975240016699 0.1666831692083428 0.125010787322197 0.1249891438433585 0.08332945912053219 0.08336724117856731 0.08335227889740056 0 0 0 0.3236271517462427 0.05880392528038213 0.05882124701312298 0.0882311866667483 0.05882385988362233 0.02940966136547024 0.02940758803653057 0.2646507020412379 0.08822467796664293 0 0 0 0 0 0 0 0.3667593506660117 0 0.3332603740342163 0 0 0.2999802752997721 0.2608809366548451 0 0.260897179628216 0.2173883007875011 0 0.1303929995163418 0 0.1304405834130959 0 0 0 0.2000211756714713 0.07998562548697315 0.08002649151439778 0.08000336408419551 0.08002260023216989 0.03999272973237262 0.0400162841907391 0.359929493096407 0 0 0.04000223599127366 0.1071193085374191 0 0 0.1786413497696983 0 0.03571871161693162 0 0.3214280535414642 0.0714252139423483 0 0.2856673625921385 0.1666870453637684 0.08335979249660867 0.08334314449299329 0.08336369524714379 0.04165564700360803 0.04166836708478208 0.041651857454402 0.1666613095491319 0.08333542251336533 0.04165164281868999 0.1666220759755067 0.2142678467300326 0.07140795377398994 0.07141302643726133 0.2142921522256244 0.07141962848046238 0.1786115658870135 0.07144490746970676 0.03572398726521688 0.03570527376344397 0.0357136579672481 0 0.14 0 0 0.24 0 0.05 0 0.19 0.1 0 0.28 0 0 0 0.4285634240484258 0 0.3804792383452011 0 0.1909573376063731 0 0 0 0.1666753756191067 0 0 0.2778037623265519 0 0.05550487148878678 0 0.222238732095256 0.1110702722126405 0 0.166706986257658 0.07146888109325271 0.07140324919394947 0.07135727318190434 0.0714921945851974 0.07139840926732111 0.07141700501846202 0.07149375863824607 0.2857191709708236 0 0 0.2142500580508433 0 0 0 0 0 0 0 0.4614158512969359 0.07694489824074223 0.03847195779311333 0.4231672926692086 0 0 0 0.352999013228553 0 0.3234990092231599 0 0.3235019775482871 0 0 0 0.1666703964279317 0.1665975240016699 0.1666831692083428 0.125010787322197 0.1249891438433585 0.08332945912053219 0.08336724117856731 0.08335227889740056 0 0 0 0.3236271517462427 0.05880392528038213 0.05882124701312298 0.0882311866667483 0.05882385988362233 0.02940966136547024 0.02940758803653057 0.2646507020412379 0.08822467796664293 0 0 0 0 0 0 0 0.3667593506660117 0 0.3332603740342163 0 0 0.2999802752997721 0.2608809366548451 0 0.260897179628216 0.2173883007875011 0 0.1303929995163418 0 0.1304405834130959 0 0 0 0.2000211756714713 0.07998562548697315 0.08002649151439778 0.08000336408419551 0.08002260023216989 0.03999272973237262 0.0400162841907391 0.359929493096407 0 0 0.04000223599127366 0.1071193085374191 0 0 0.1786413497696983 0 0.03571871161693162 0 0.3214280535414642 0.0714252139423483 0 0.2856673625921385 0.1666870453637684 0.08335979249660867 0.08334314449299329 0.08336369524714379 0.04165564700360803 0.04166836708478208 0.041651857454402 0.1666613095491319 0.08333542251336533 0.04165164281868999 0.1666220759755067 0.2142678467300326 0.07140795377398994 0.07141302643726133 0.2142921522256244 0.07141962848046238 0.1786115658870135 0.07144490746970676 0.03572398726521688 0.03570527376344397 0.0357136579672481 0 0.12 0 0 0.2 0 0.04 0 0.16 0.08 0 0.4 0 0 0 0.39 0 0.35 0 0.17 0 0 0.09 0.1666753756191067 0 0 0.2778037623265519 0 0.05550487148878678 0 0.222238732095256 0.1110702722126405 0 0.166706986257658 0.07146888109325271 0.07140324919394947 0.07135727318190434 0.0714921945851974 0.07139840926732111 0.07141700501846202 0.07149375863824607 0.2857191709708236 0 0 0.2142500580508433 0 0 0 0 0 0 0 0.4614158512969359 0.07694489824074223 0.03847195779311333 0.4231672926692086 0 0 0 0.352999013228553 0 0.3234990092231599 0 0.3235019775482871 0 0 0 0.1666703964279317 0.1665975240016699 0.1666831692083428 0.125010787322197 0.1249891438433585 0.08332945912053219 0.08336724117856731 0.08335227889740056 0 0 0 0.3236271517462427 0.05880392528038213 0.05882124701312298 0.0882311866667483 0.05882385988362233 0.02940966136547024 0.02940758803653057 0.2646507020412379 0.08822467796664293 0 0 0 0 0 0 0 0.3667593506660117 0 0.3332603740342163 0 0 0.2999802752997721 0.2608809366548451 0 0.260897179628216 0.2173883007875011 0 0.1303929995163418 0 0.1304405834130959 0 0 0 0.2000211756714713 0.07998562548697315 0.08002649151439778 0.08000336408419551 0.08002260023216989 0.03999272973237262 0.0400162841907391 0.359929493096407 0 0 0.04000223599127366 0.1071193085374191 0 0 0.1786413497696983 0 0.03571871161693162 0 0.3214280535414642 0.0714252139423483 0 0.2856673625921385 0.1666870453637684 0.08335979249660867 0.08334314449299329 0.08336369524714379 0.04165564700360803 0.04166836708478208 0.041651857454402 0.1666613095491319 0.08333542251336533 0.04165164281868999 0.1666220759755067 0.2142678467300326 0.07140795377398994 0.07141302643726133 0.2142921522256244 0.07141962848046238 0.1786115658870135 0.07144490746970676 0.03572398726521688 0.03570527376344397 0.0357136579672481 0</probabilities>
		</cpt>
		<cpt id="SpaceResolution">
			<state id="less1" label="spaceresolution1" />
			<state id="less5" label="spaceresolution2" />
			<state id="less30" label="spaceresolution3" />
			<state id="less100" label="spaceresolution4" />
			<state id="less500" label="spaceresolution5" />
			<state id="less1000" label="spaceresolution6" />
			<state id="more1000" label="spaceresolution7" />
			<parents>FloodParameter Topography ObservedSpaceScale</parents>
			<probabilities>0.005275839499868276 0.03406546032189273 0.0505555277336326 0.2017287801603349 0.5118804687875054 0.06845645363744257 0.1280374698593235 0.004004745800144381 0.03237561250439033 0.3030074240628778 0.1632835310136103 0.4938612438397946 0.0002561234307050789 0.003211319348477389 0.3354733729765336 0.2472041805928308 0.228242692552848 0.0346318199524205 0.1486379503979277 0.00342375332879919 0.002386230198640265 0.004268280563773215 0.005431309633730403 0.0148093688720731 0.1995827479290581 0.2313472038019443 0.2092668048003004 0.3352942843991207 0.007503851102261609 0.009051288669590866 0.2331952179128776 0.1615752476153514 0.3911848614462623 0.1090988999860551 0.08839063326760109 0.1923136615502253 0.1503489440351972 0.3678998015703213 0.06062130184074849 0.05571221667467415 0.09541674463444012 0.0776873296943934 0.00374318873590292 0.02087978661551883 0.02318255579624142 0.165330282464206 0.4819975042237947 0.1791574506005323 0.1257092315638039 0.007794847566007665 0.02473374073886904 0.1793980645098044 0.30894423887504 0.4676185575906221 0.007862933086647759 0.003647617633009101 0.3093482203439237 0.126882732335325 0.2995507694286818 0.1014166513882498 0.150587487800739 0.007500848218103333 0.00471329048497745 0.003417034615082248 0.006220032074761852 0.01100380097451655 0.2384443683489744 0.342359876562867 0.1980784983485171 0.2004763890752808 0.003041476076349353 0.006589019366839153 0.2392628769785229 0.3274132445863795 0.4199443112131531 0.002035141969418781 0.001713929809337315 0.3113833952480855 0.4615690043650492 0.04677035958697791 0.06766879958869786 0.1090762328404161 0.001133851014210791 0.002398357356562629 0.02690870218166782 0.09090565865525864 0.2062302462947983 0.2434408947423083 0.1732294628704072 0.1391226463018856 0.1201623889536742 0.01247078154114757 0.07787860477518405 0.5315188961429905 0.1992581263312704 0.1730742789047497 0.001988596349329565 0.003810715955328239 0.29 0.3 0.32 0.05 0.03 0 0.01 0.01624352926735519 0.06432292673489209 0.1734321037446275 0.3275207968060115 0.2637819707938531 0.0824527872532626 0.07224588539999822 0.01273952390828656 0.05788417905090631 0.3565892453343112 0.2942435975679323 0.2672800737368961 0.005434405470361472 0.005828974931306053 0.2189574947002837 0.1547137640112181 0.3554271803677235 0.1529936682355823 0.1055610226105969 0.006693826176585138 0.005653043898010491 0.01387030610782398 0.07171250026313154 0.06942994384943418 0.344491530580528 0.2643073663743388 0.08716955506104998 0.1490187977636935 0.03207314063280646 0.07159080989966955 0.3287181895948298 0.4555546390212875 0.09025635481231829 0.005489495904096293 0.01631737013499214 0.4344115088108178 0.1844161256807645 0.256013894825321 0.09221042473435574 0.01822503926383308 0.007640443329093669 0.007082563355813988 0.01009255374198567 0.06481343367548405 0.09942413084585872 0.3812664165424755 0.1378813152334298 0.2029765592004433 0.1035455907603229 0.01002405278694611 0.06317277270351271 0.3817521573513912 0.3878976690621672 0.1361532083672351 0.01551288123673738 0.005487258492010491 0.2575573741751669 0.1483460180868588 0.3971908680082881 0.1480739542790311 0.02965544813736223 0.01240966219389439 0.006766675119398467 0.003957886895891233 0.08774722409402851 0.06465308130298192 0.2888942214510185 0.2630784594405732 0.1316876348531166 0.15998149196239 0.007975046964254424 0.08973524707244843 0.3771974347418341 0.3413241096476864 0.1769803752561736 0.001227651123530897 0.005560135194072184 0.29 0.32 0.24 0.1 0.04 0 0.01 0.004899740896677568 0.006661406720671545 0.01661619803335077 0.184093675954771 0.2490400021815603 0.2927320990633085 0.2459568771496602 0.006168472262906641 0.008835659074592786 0.1284434604198835 0.2059959923224533 0.4189779430608772 0.1284302393310467 0.1031482335282398 0.2492994470734129 0.2653188249697613 0.1588679278873857 0.06050360355346099 0.06465351613640263 0.1109436966664866 0.09041298371308974 0.01366917789060308 0.03239646856425815 0.08138524965904329 0.2211042235708395 0.3424482418525848 0.2002000107847487 0.1087966276779225 0.007726962738579205 0.04579767609370241 0.3009059874045901 0.428505575913315 0.1917156327856663 0.009908216582758624 0.0154399484813884 0.4086861613115394 0.2020331826433202 0.2309451067801518 0.1084632594415948 0.03914468770338368 0.000441951054978197 0.01028565106503198 0.000275594746444411 0.02740730025745385 0.03877306554068858 0.3664747609192899 0.3481330120071655 0.05365193969481947 0.1652843268341384 0.003609317165384859 0.02991772375790811 0.346178813669395 0.464723143102504 0.1527595600677558 0.002058998246122774 0.0007524439909297118 0.2728814670697374 0.2017357070728416 0.340094190542902 0.1468131012264901 0.03467998010840681 0.002269030475667669 0.001526523503954222 0.008458829426775814 0.02459024205374737 0.03002437423735282 0.6084977599022984 0.1420019776381513 0.08176319569333258 0.1046636210483418 0.01294968142260098 0.011037030376154 0.5459394924423566 0.2277640829238861 0.181459280712351 0.003972680080242073 0.016877752042409 0.2 0.43 0.15 0.12 0.05 0.02 0.03 0.01565032634626981 0.00976312799909341 0.01733935074131372 0.0846790879892905 0.255513711640921 0.3207363370145797 0.296318058268532 0.02452231400492983 0.02551953207516941 0.1165569767713306 0.1201410457436353 0.4114207747097202 0.1702749327214927 0.1315644239737219 0.2627024063894113 0.2300767952449708 0.09737181522333067 0.07018130977146872 0.08407151058572868 0.1397915258258908 0.115804636959199 0.02786346395021115 0.02285854663294269 0.01039481170543128 0.1267783733760578 0.4241359366370013 0.09131920443386822 0.2966496632644878 0.03234703903622115 0.009087946867084046 0.2460853469027482 0.1611418814262718 0.524417503006389 0.01353064624576667 0.01338963651551916 0.2228584888546512 0.3199268465953502 0.2994778947746919 0.09298776301153577 0.04516242503874275 0.01434750016712565 0.005239081557902583 0.005773872460717555 0.009324610257730691 0.0119909233495658 0.3942844608753449 0.2536995534891245 0.1596680150499714 0.1652585645175453 0.01611394105431085 0.006886070600133698 0.04373205290808174 0.5694902831001486 0.3548607072069289 0.004143947924494458 0.004772997205901706 0.4317613666306727 0.127338752604811 0.179659411871451 0.1896155276230785 0.06322821021954907 0.0065050236082619 0.001891707442175857 0.007119872640629116 0.06243566331566756 0.05126706603481355 0.3052485311382401 0.1888128357622199 0.09216834683568706 0.2929476842727429 0.00269234455592492 0.05140931566682812 0.4056838661337397 0.2354138089047275 0.2957919953265501 0.004354646746243782 0.004654022665985841 0.21 0.5600000000000001 0.17 0.04 0.02 0 0 0.01589238809351337 0.01344315824937542 0.01581595289678363 0.1126673112384917 0.2651624460619274 0.2243406778470203 0.3526780656128881 0.01100484322919923 0.01218067330409327 0.2191674422258407 0.2225537147527268 0.2977953557601892 0.1286404005662589 0.1086575701616918 0.2998665887137062 0.09741937143866228 0.2434243487880555 0.06059314025335803 0.07847600864360477 0.1207608957183506 0.09945964644426264 0.03066568267907444 0.03278678734573918 0.03223103585747771 0.08752092121051228 0.2465052928622287 0.484737722892065 0.08555255715290275 0.006479734353366963 0.02553808158981189 0.1510372399242275 0.4576539881662171 0.3016541244161794 0.02937027245385999 0.02826655909633713 0.5143803544133657 0.07162688372080007 0.3091226188957413 0.07135914409796743 0.01631788751557278 0.01195676787435024 0.005236343482202543 0.01815322051667329 0.03295920572590415 0.05167628174901393 0.3659353002903111 0.1906055873791542 0.2788402006424749 0.06183020369646835 0.007166264519070644 0.03209350540359113 0.571270234107655 0.2029788387960864 0.1474779830305146 0.01841055852249359 0.02060261562058845 0.4402828896931885 0.2028556147334826 0.2453607961428581 0.08185405379285085 0.01516643246852411 0.007763642273305046 0.006716570895790707 0.00391365216872174 0.0140267037064675 0.09818397772656808 0.1451211999542956 0.2791983500375114 0.2760621584569987 0.1834939579494371 0.006896707286127212 0.01766597017598295 0.4117210186842391 0.26757978243157 0.2892681620763551 0.0005449184251311311 0.006323440920594511 0.15 0.58 0.13 0.09 0 0.01 0.04000000000000001 0.0184493374650426 0.01044132042146731 0.02704836448838395 0.1626295134491393 0.268105395334529 0.2500264106986055 0.2632996581428322 0.02025643337239972 0.02702089739542034 0.06175545272813041 0.3259054596583881 0.1999684167480227 0.2001195769847483 0.1649737631128905 0.1663381244757284 0.2005265504666619 0.1459200364364462 0.08170168329686696 0.09428291214137717 0.171657131358002 0.1395735618249174 0.005100671724985498 0.02478054806217191 0.03722007242810523 0.1205573981801145 0.3883092742324749 0.3976651896136709 0.02636684575847694 0.0267877121489425 0.02220017074259004 0.3156315546730634 0.2613671822352787 0.3521477921230585 0.02056204424333017 0.001303543833736744 0.3007465400054082 0.2798373511967527 0.2861290121189557 0.1064333584450273 0.002359790291941798 0.005251853744926247 0.019242094196988 0.02126997268491891 0.003924118811045161 0.128776501539692 0.3281886494319176 0.2919363280390483 0.07583315836768249 0.1500712711256957 0.009368736820821167 0.009537700212575216 0.4067382235393501 0.3992680935711453 0.1722158945034208 0.002421050050481242 0.0004503013022061125 0.1357736102499547 0.2198497849020489 0.4563217573003173 0.162926058194437 0.01470546655684149 0.009958217795633365 0.0004651050007674252 0.01242730451743202 0.00546769398362502 0.02646676397072054 0.2431707942503183 0.1848914996810979 0.2434881155245301 0.2840878280722761 0.005479865178337484 0.00550587166183565 0.1003888064548263 0.4514746856908409 0.4237331938861485 0.004273044711877116 0.009144532416134011 0.36 0.05 0.38 0.13 0.04 0.02 0.0199999999999999 0.0194662967286098 0.01328296058481278 0.006404665924251001 0.2245134172251969 0.1958598195326603 0.2495822433025728 0.2908905967018965 0.01278168279570157 0.007966338114720391 0.2886998478330718 0.1456503729773689 0.4304346033151003 0.06279301846812645 0.05167413649591063 0.4518726309720024 0.2002076743384295 0.2085816723456143 0.02568365921036682 0.03045848206326736 0.04218787464651794 0.04100800642380179 0.03696393786584316 0.02348190864088224 0.01387757106396946 0.4169043322495036 0.09712263232926623 0.3478908784367383 0.06375873941379685 0.01888543692500044 0.01870443054836355 0.3819837310332873 0.3400976135732935 0.2228886328936407 0.01126300228825306 0.00617715273816136 0.5432654667105424 0.2989729264801679 0.08134894744876545 0.05720398210059922 0.01271015433680825 0.001286047125110191 0.005212475798006664 0.006018273895922369 0.0109850803582866 0.02334738081001812 0.3211186186137373 0.2874584486447219 0.08532779870917274 0.2657443989681412 0.01394333206540996 0.02513015053523007 0.4419230393006937 0.2700319634152723 0.2322681048032721 0.003353047309773609 0.01335036257034825 0.4882719642253572 0.2257284261338802 0.2200042903411377 0.04198831016412891 0.008703618320720618 0.003630996095876849 0.01167239471889823 0.01709373719862691 0.002753409689924737 0.1270255595508181 0.3426007965249845 0.1902840382658889 0.2509108120071993 0.06933164676255753 0.02710110798686087 0.01596241169915132 0.6101857417066852 0.2595525671964257 0.06487195709436452 0.01307510630086297 0.009251108015649644 0.451038522376297 0.2220060208498879 0.175046179370808 0.1263518331807839 0.003568363400828376 0.01472377923332812 0.007265301588066778 0.00627634989230462 0.01639548858697955 0.0304921049650736 0.1294873842341193 0.2013136991247324 0.3294728296955949 0.2865621435011955 0.009651861841346594 0.01370985528100088 0.1419596056423252 0.1980931610333444 0.2354990725300582 0.2224555671435819 0.1786308765283428 0.1631262420892491 0.1385678280749823 0.1296558651924163 0.08125532535645243 0.1134302187043733 0.2103589205943446 0.1636055999881819 0.02159505164325499 0.01296423757944343 0.055599757577122 0.2501226645513859 0.2883897617463195 0.04685277668737449 0.3244757502150996 0.01057275374950736 0.0227392211826525 0.3950702833778816 0.3067789025424021 0.2326169752698468 0.02066583155069155 0.01155603232701802 0.5557825983829882 0.07952231702212012 0.2429306627212992 0.08580497720104117 0.01667089387380903 0.009252929058661498 0.01003562174008087 0.0003045703551718428 0.0007378418576731529 0.1763353596001992 0.5506864620248662 0.01991268251765144 0.08453244723690324 0.1674906364075351 0.01345138694558533 0.003564096891709218 0.3943186987066428 0.4535877612501117 0.1198908740426739 0.003365159064623731 0.01182202309865309 0.4753776652366086 0.0497535569059363 0.248698117629011 0.2029803381382081 0.01361216882297943 0.009370584713768051 0.00020756855348865 0.0184969362610885 0.004012962823778706 0.05396517671355064 0.1988655632287078 0.1891157792109361 0.2044016139611059 0.3311419678008324 0.001472365080597988 0.007351066916745932 0.2606398250503997 0.381088246639911 0.2157251411734392 0.07025848652842862 0.0634648686104775 0.4198720068764177 0.07924334249559703 0.322071499979531 0.04959741646105616 0.01116559222372016 0.06315509298316629 0.05489504898051145 0.006274188323982001 0.00683548223421068 0.01893644638699662 0.1573850410036909 0.1836354444478317 0.3971718157667962 0.2297615818364918 0.01111696557907741 0.01061852686502529 0.1977978900801038 0.156630302137257 0.3408621460330539 0.1568444766237408 0.1261296926817419 0.2518371893283863 0.2256420319743237 0.1423242678994209 0.06546613609740413 0.07469483057022118 0.1335975527932868 0.1064379913369571 0.0200405889148005 0.0009189125114315137 0.0254310011625379 0.1752437011740988 0.06835391644550573 0.2855004359131786 0.424511443878447 0.01208901658062125 0.0235995474313912 0.436870081460932 0.3388442338468654 0.03500919524154224 0.08567343539616737 0.06791449004248058 0.2465497750079654 0.3917994942289483 0.1849042430950159 0.07688717249798538 0.001930618386968235 0.06537990375214084 0.03254879303097583 0.004941160807906349 0.004271844610440058 0.01975390723906384 0.1337855989953603 0.1302946087383099 0.4413492686991849 0.2656036109097347 0.007889908298183786 0.002987749472441605 0.3339572986659567 0.2991203268773201 0.1187653049258638 0.1808253012532555 0.05645411050697853 0.4366007890526807 0.1451765093320949 0.2209795490559177 0.02908860293877012 0.007730278498419813 0.1241702641326415 0.03625400698947524 0.06655935361347719 0.05476966846814575 0.01094964225214392 0.2660666452384908 0.171056702820169 0.2692218538211049 0.1613761337864684 0.1032511763628578 0.06605271550232233 0.3606433857495734 0.2756077921510836 0.1635269853448396 0.009691605849432912 0.02122633903989027 0.54 0.25 0.15 0.02 0.01 0.01 0.0199999999999999 0.00600255617055126 0.008529659008719359 0.01318728609426492 0.178645669821559 0.2801363894974773 0.2975718207710693 0.215926618636359 0.0209828759443991 0.01216214424502443 0.2492319226652326 0.1537869003331315 0.4139978457119854 0.07859203985467095 0.07124627124555598 0.572092961846991 0.07845011214784559 0.1710054380541494 0.03970250739233781 0.03595849893644217 0.05616800357290939 0.04662247804932467 0.02383313357531246 0.04315100766344198 0.01274645899412453 0.3070716645536331 0.1561225532791496 0.2591168185942874 0.197958363340051 0.04617237705494582 0.05744156212711703 0.3074004643904311 0.1193972643618186 0.4173318064782712 0.02016357307759942 0.03209295250981684 0.3845597880824246 0.3942698207747501 0.1901928445023617 0.0101338437325419 0.0102698027048369 0.003305617885767482 0.007268282317317388 0.07690384757936737 0.04310303252810158 0.006936114405904901 0.2199597851070334 0.1448782136917675 0.2341657694963886 0.2740532371914367 0.08435005470939076 0.04790792354478435 0.4637990215114572 0.1675137347801589 0.2093806050693306 0.0114529012772481 0.01559575910763015 0.4743689889629784 0.2589872635746531 0.2289435469467241 0.009571168677568168 0.006911402684886983 0.009928796229266949 0.0112888329239224 0.2081475934873624 0.1780560837098267 0.03079043456440371 0.1032599816433631 0.2931221340225814 0.1319366137508642 0.05468715882159867 0.2167697627755883 0.2079969571492415 0.1642158518155621 0.2498363861895723 0.1461163892282596 0.0120834449572653 0.00298120788451103 0.65 0.25 0.08 0.01 0 0 0.01000000000000001 0.006065363776299287 0.009481960940123303 0.01976188184060993 0.09724784451730617 0.2621846228073847 0.3409794887164013 0.2642788374018755 0.006405429068785257 0.01102073711422122 0.1859308997547104 0.239521185604414 0.2698846283780783 0.1597361296939953 0.1275009903857953 0.06507355000291054 0.4269227135617135 0.08437098297478744 0.07433506543941801 0.08370319363130789 0.1473351555391322 0.1182593388507304 0.182489536968417 0.1079496301253981 0.03519245669727707 0.1702412321899085 0.03484194108048842 0.1493837548131708 0.3199014481253402 0.1674983354408296 0.09488683282900527 0.2737204740771307 0.1998715664657799 0.2493285632189959 0.007289907462417324 0.00740432050584125 0.2174887999129582 0.2391065208584021 0.4936592308588061 0.008528060906887514 0.001646494648428349 0.02148139526283381 0.01808949755168392 0.1995786199429654 0.1136417217072424 0.0260216505511095 0.2215097947563184 0.1491540447024859 0.1606343336255094 0.129459834714369 0.2094713959152827 0.1236828623869524 0.3446808237050613 0.1163579987686387 0.1956552653588156 0.00438707485166967 0.005764579013579724 0.6714198429595769 0.2063614710565804 0.1045587410343192 0.007639003223635778 0.003606877622911338 0.004541036448116442 0.001873027654860158 0.001489390965693478 0.01520489229546155 0.05352982898287077 0.3897147398348991 0.2909400949803143 0.1054138399778776 0.1437072129628832 0.0170422070753573 0.002685950783089758 0.2460334532927144 0.4956811539805964 0.2111502199911716 0.01434329200071643 0.01306372287635391 0.39 0.29 0.19 0.1 0.01 0.01 0.01000000000000012 0.01149980195478907 0.01075026298242409 0.01543490227586738 0.09716219886890232 0.2657383814996463 0.3045867718598927 0.2948276805584782 0.007869807683414914 0.01554570839257264 0.2152821581656783 0.2137802334937228 0.2659256421237692 0.1530449997015551 0.128551450439287 0.2767786719482674 0.1706330285898226 0.1799525342217003 0.06739606288991883 0.07164025422636182 0.1289423267927998 0.1046571213311293 0.0002410627328173311 0.0003207321984339177 0.03270769562383792 0.1571489188732946 0.3034428010169021 0.2468002416907241 0.2593385478639897 0.02195881160927886 0.008321172721344874 0.1816195426732047 0.3305536483028518 0.4048217844294371 0.02132975847165442 0.03139528179222838 0.3099375257349594 0.2563206546300882 0.2921419882600382 0.09612392037029699 0.01840089639143139 0.01951370280506354 0.00756131180812234 0.00613306585644035 0.0008933998804138389 0.05033628980973313 0.4879322493642338 0.06900868564206231 0.2191033167828738 0.1665929926642427 0.004757648357834136 0.006650538012563934 0.3405057566819823 0.4533035764017659 0.1820897422629473 0.004140738695137501 0.008551999587768864 0.1504483101045771 0.2830312796741268 0.3712031474405826 0.1696391666476064 0.006011228126509355 0.0134259541049316 0.006240913901666382 0.01020271152725066 0.008328213264548027 0.005856813707592646 0.2329394906941702 0.1783192411998904 0.2767463737581938 0.2876071558483543 0.02058706449253464 0.01544464950177196 0.2813647396701844 0.3610219081329821 0.1342543584509586 0.1098641549151283 0.07746312483643994 0.35 0.41 0.13 0.02 0.01 0.05 0.02999999999999999 0.006235088453177124 0.008933250423344193 0.01002980842870733 0.2060648401146201 0.1688679338577823 0.2714139133983699 0.3284551653239989 0.01106128166467496 0.009461531558127742 0.3397552157445818 0.1710786817688173 0.3232805786949926 0.08230484767775348 0.063057862891052 0.4657084117953132 0.2446961903521021 0.1069332596097364 0.0425665264463418 0.03486841338052842 0.05671561350470947 0.04851158491126855 0.01731762193926716 0.007893687685285439 0.01122850188331229 0.2312613276071877 0.1790569449591822 0.0893641158982829 0.4638778000274824 0.0003419537147709861 0.01565558184848605 0.2883807274349356 0.2909897331502689 0.2630990387578568 0.04323392102193464 0.09829904407174701 0.3036418563317735 0.4738276619867105 0.0933782435151979 0.003766158500652116 0.007965838224831216 0.04064172234250511 0.07677851909832957 0.01384280689005766 0.0009374237478740074 0.004128407146396216 0.07933418866611555 0.2621035251596849 0.2082375388126141 0.4314161095772576 0.004974659049133247 0.004135057033378211 0.3488559044727256 0.2272481152332687 0.2773126011123011 0.03552891878838545 0.1019447443108078 0.4973385416749686 0.1837129757798119 0.1918051029433523 0.02530937971730008 0.0006367148032926084 0.02835596790959105 0.07284131717168353 0.1219117074707111 0.06211402438351273 0.006239182860000841 0.2375786077850018 0.08920618289488327 0.32031849626946 0.1626317983364302 0.1881804947478398 0.08552781933142913 0.3303461779157568 0.3346400361143286 0.03288897380903769 0.02362032020103912 0.004796177880569054 0.63 0.21 0.11 0.01 0.01 0.01 0.02000000000000001 0.005630273240312039 0.005573195603026248 0.00957838717159004 0.193737628210138 0.2552264466151372 0.1995271840422984 0.3307268851174981 0.005624053154545984 0.00789672449641916 0.2989149614249113 0.2297606740434165 0.3083337649731974 0.08329808319961522 0.06617173870789449 0.5106850020731794 0.1310597886737108 0.1708192040662109 0.03340653111492207 0.04095386656926218 0.06323183365355742 0.04984377384915738 0.05350922767692273 0.09695306692313212 0.001760990879626662 0.2434163623637794 0.3033431991270827 0.1885251679437603 0.112491985085696 0.04664039465340104 0.1090718341727774 0.3352975507243744 0.1097158249939438 0.3784246769988063 0.00686479416124266 0.01398492429545457 0.6198147275956383 0.1655852230048322 0.1414553402557212 0.01223290666509568 0.01242605678993184 0.02742897668337538 0.02105676900540554 0.09023293727979256 0.05625368397476718 0.002548211888221272 0.0841162251388336 0.3235329797976647 0.241716883376899 0.2015990785438218 0.09790612129397437 0.06499386299683149 0.2003426554292425 0.2833163905283306 0.3445064714561694 0.004684865702099416 0.00424963259335218 0.4267685885264101 0.4610250804794359 0.08666122169650971 0.009459176709593382 0.007565684058630027 0.005291413486910408 0.003228835042510707</probabilities>
		</cpt>
		<cpt id="AccurateObservedTimeScale">
			<state id="less1" label="aotc1" />
			<state id="less3" label="aotc2" />
			<state id="less7" label="aotc3" />
			<state id="less15" label="aotc4" />
			<state id="less30" label="aotc5" />
			<state id="more30" label="aotc6" />
			<parents>ObservedTimeScale</parents>
			<probabilities>0.06 0.07000000000000001 0.1 0.15 0.25 0.37 0.01 0.12 0.32 0.43 0.11 0.01 0.38 0.24 0.15 0.12 0.08 0.03</probabilities>
		</cpt>
		<cpt id="AccurateObservedSpaceScale">
			<state id="subcity" label="aoss1" />
			<state id="city" label="aoss2" />
			<state id="basin" label="aoss3" />
			<parents>ObservedSpaceScale</parents>
			<probabilities>0.125 0.25 0.625 0.25 0.625 0.125 0.625 0.25 0.125</probabilities>
		</cpt>
	</nodes>
	<extensions>
		<genie version="1.0" app="GeNIe 2.1.1104.0 ACADEMIC" name="Network1" faultnameformat="nodestate">
			<node id="ObservedSpaceScale">
				<name>ObservedSpaceScale</name>
				<interior color="a0a0a0" />
				<outline color="000080" />
				<font color="000000" name="Arial" size="10" />
				<position>1300 400 1471 476</position>
			</node>
			<node id="FloodType">
				<name>FloodType</name>
				<interior color="ff8080" />
				<outline color="000080" />
				<font color="000000" name="Arial" size="10" />
				<position>1320 274 1463 343</position>
			</node>
			<node id="Topography">
				<name>Topography</name>
				<interior color="cc99ff" />
				<outline color="000080" />
				<font color="000000" name="Arial" size="10" />
				<position>282 400 425 469</position>
			</node>
			<node id="FloodResponseLevel">
				<name>FloodResponseLevel</name>
				<interior color="ff8080" />
				<outline color="000080" />
				<font color="000000" name="Arial" size="10" />
				<position>1025 152 1211 206</position>
			</node>
			<node id="FloodStage">
				<name>FloodStage</name>
				<interior color="ff8080" />
				<outline color="000080" />
				<font color="000000" name="Arial" size="10" />
				<position>831 273 970 322</position>
			</node>
			<node id="CloudCover">
				<name>CloudCover</name>
				<interior color="cc99ff" />
				<outline color="000080" />
				<font color="000000" name="Arial" size="10" />
				<position>488 400 631 469</position>
			</node>
			<node id="RevisitCycle">
				<name>RevisitCycle</name>
				<interior color="ffcc99" />
				<outline color="000080" />
				<font color="000000" name="Arial" size="10" />
				<position>725 672 841 712</position>
			</node>
			<node id="RadiationResolution">
				<name>RadiationResolution</name>
				<interior color="ffcc99" />
				<outline color="000080" />
				<font color="000000" name="Arial" size="10" />
				<position>345 670 498 710</position>
			</node>
			<node id="BandType">
				<name>BandType</name>
				<interior color="ffcc99" />
				<outline color="000080" />
				<font color="000000" name="Arial" size="10" />
				<position>894 673 1000 713</position>
			</node>
			<node id="SpaceResolution">
				<name>SpaceResolution</name>
				<interior color="ffcc99" />
				<outline color="000080" />
				<font color="000000" name="Arial" size="10" />
				<position>527 670 690 710</position>
			</node>
			<node id="AccurateObservedTimeScale">
				<name>AccurateObservedTimeScale</name>
				<interior color="ffcc99" />
				<outline color="000080" />
				<font color="000000" name="Arial" size="10" />
				<position>1050 673 1228 713</position>
			</node>
			<node id="AccurateObservedSpaceScale">
				<name>AccurateObservedSpaceScale</name>
				<interior color="ffcc99" />
				<outline color="000080" />
				<font color="000000" name="Arial" size="10" />
				<position>1266 670 1450 710</position>
			</node>
			<node id="ObservedTimeScale">
				<name>ObservedTimeScale</name>
				<interior color="ccffff" />
				<outline color="000080" />
				<font color="000000" name="Arial" size="10" />
				<position>1093 400 1264 476</position>
			</node>
			<node id="SolarRadiation">
				<name>SolarRadiation</name>
				<interior color="cc99ff" />
				<outline color="000080" />
				<font color="000000" name="Arial" size="10" />
				<position>694 400 837 469</position>
			</node>
			<node id="FloodParameter">
				<name>FloodParameter</name>
				<interior color="ff8080" />
				<outline color="000080" />
				<font color="000000" name="Arial" size="10" />
				<position>901 400 1044 469</position>
			</node>
		</genie>
	</extensions>
</smile>
